{'C': 0.95, 'F': 0.05}
{'C': 0.95, 'F': 0.05}
{"node_id": "neural_triad", "weights": [[-0.24409239268039862, 0.013017793631958876, -0.1260467258263038], [0.7156858629370706, 0.03008520035175312, 0.043140536597158954], [0.2924389685186546, 0.6228058035751661, -0.4843009285291942], [0.40465504533754265, -0.6627172110090482, 0.30612942610590693], [-0.5907728395256445, 0.5220484676004549, -0.20067079591955203], [0.005065185998453707, 0.07368125782554422, 0.3388230112137387], [0.78998915011218, 0.2122787413780287, 0.04266120252736423], [-0.4458446648273795, -0.12997182928474915, 0.21171314443886693], [-0.13210938088079102, -0.13481855887321653, -0.6653920700650897], [0.09256167395566094, 0.4793089173762373, 0.3114330258134548], [0.19548346175854248, -0.313017633592842, 0.5412677012367033]], "bias": [0.1, 0.1, 0.1], "timestamp": 1771197303.9741821}
{"node_id": "arkhe_neural_v2", "layers": [{"weights": [[0.006207219220108298, -0.14167714168327725, 0.45516980164543513, -0.42622407279634583, 0.15822167449552482, -0.3905889207834658, -0.35583860964412745, -0.21289540368640245, 0.20126302289989065, 0.412211369398431, -0.4091510910185083, -0.5813961646584839, -0.19733932293252293, -0.13084232469370244, -0.47689029361316176, -0.15075366259719805], [0.4841234662133032, 0.17680642716133946, 0.04275133792986331, 0.44760595598882125, -0.5090267373206212, -0.6585548679379785, -0.27448497591641796, 0.32365897269525457, 0.5197820515814757, -0.2302592155757868, 0.5154185035408406, -0.7796468804732892, -0.19804679297519906, -0.10207601541373432, 0.39107037578973064, 0.32996714316202763], [-0.3135026739524297, 0.021309627618037237, 0.4220765991948504, 0.0064082692235919135, 0.6306654007701237, -0.6419956130134581, 0.15282237296938572, -0.34913112660419454, 0.41534632258888293, -0.5314953061874683, 0.015986038194465382, 0.4665393445349662, 0.49878017237253053, -0.037694995109269686, -0.2317382651236751, 0.4555995514333022], [-0.359928384330183, -0.3228197139668814, 0.05104246479690886, -0.4100803479849157, -0.2016311551634698, 0.3242955207509099, 0.004386740397517002, 0.2795286292698173, 0.6311513820818754, 0.15049618845974178, 0.6207780377071994, -0.43835819095359474, -0.15375035577228244, 0.07204391205873986, -0.35988939736436065, 0.06115212990210644], [-0.3040204005638375, -0.13463705617999105, 0.16501637558217505, 0.9614352733699937, -0.37923966889664557, 0.9731171116295231, -0.3916575293138694, -0.20976259616973675, 0.15215550926221433, -0.3604034289537787, 0.6964238145173003, 0.183746603498153, -0.004411624440949929, -0.529184148018076, -0.666878150218056, -0.3705248577831698], [-0.27620119104512386, -0.1547446975069188, 0.3885844089247685, 0.04807243743015421, 0.7024828616162362, -0.853180683048632, -0.2647473510744255, -0.08898053333161166, -0.34091565262894, -0.23899018912676567, -0.48339761348894905, -0.14055311002478366, -0.03924054506389179, -0.3419014885855252, -0.2899148462370844, -0.010318318769496742], [-0.28069538899686886, 0.05452754473227054, -0.12648937308907265, 0.47977765919345183, -0.127229178576771, 1.029949536538587, -0.4467622725267535, 0.3732422397714823, -0.39471099186068453, 0.48782960866647956, 0.07865921380069195, -0.26856704996618114, -0.7672633519039097, -0.3662941153727986, -0.029430610635016865, 0.6975708168186513], [-0.13723288242933812, 0.07805354307025024, 0.4807201420970952, -0.44283716131449835, -0.784080639145286, 0.1637058312854532, 0.5637333636195548, -0.16557984071286785, 0.5441828787792036, 0.21721898180351085, -0.2897244129579262, -0.6045332191206133, 0.3491236492715416, -0.006141038374763372, -0.16067918688491037, -0.18693941894256016], [-0.37252793263282374, -0.38373554010636113, 0.4608851675075575, -0.28795321010915337, 0.09091462838503059, 0.29965215251632926, 0.18536838568393327, -0.397173315036908, 0.163713090375958, 0.46044056988654253, 0.3278742466126228, -1.0104602472267645, -0.2973359756552869, 0.04840926507927986, -0.5560256817426633, 0.0006748653577357773], [0.18043003179949693, -0.7856417598639648, -0.08975973393622601, 0.45458910083887355, 0.04293334916162053, 0.1575735104705885, -0.773285504805239, -0.3321005158490998, -0.00420714925899896, -0.11326913564482576, 0.974476164263875, -0.6142495035849367, 0.10062014017565798, -0.20935001424813512, -0.8280163494538164, -0.7965530392580588], [0.033541249489889347, -0.036142999060178906, -0.07191783117198149, -0.008870727192811446, -0.3205641951714779, 0.10031070722839897, -0.6304109124079478, -0.0693004190591633, 0.11029447269069623, 0.2509124226563515, 0.44837983545923304, -0.21106411178318935, 0.13888216063628575, 0.04810321352416773, 0.3971567461743274, 0.5794404807948448]], "bias": [0.1, 0.1, 0.1, 0.1, 0.1, 0.1, 0.1, 0.1, 0.1, 0.1, 0.1, 0.1, 0.1, 0.1, 0.1, 0.1]}, {"weights": [[-0.3236921533657237, -0.18027726250907597, -0.10388915358843634, 0.012319461697240908, 0.08108551702855872, -0.5572556915862408, 0.18942122320724666, 0.37252338432789084], [-0.47626775132903126, -0.42137493467836945, 0.042089097311213707, 0.4495075868320797, -0.28028298856123374, 0.2780050241128198, 0.3359781453067106, -0.15418484693453172], [0.032607188644028, -0.0495896547939544, -0.5377214352029226, 0.16574117595361093, -0.24724005604500535, -0.1106191468945347, 0.31784291852422036, -0.624469744041183], [0.7828944614861617, -0.48795953380512025, -0.14831960758494245, 0.444840359164176, 0.5556445017595383, 0.1960365366130206, -0.2686348395798793, -0.5611149755948857], [-0.06389329785221935, 0.04422331043585913, 0.8852664676778049, 0.28619713548041964, -0.7866777772243173, 0.6688484727383048, 0.26426040240944215, -0.21615022702419776], [-0.34190742364107296, 0.21438069275852448, -0.02234282133977225, -0.3243585277756073, 0.9505619135288721, 0.9502385111596416, -0.15856256372471275, 0.12363053328418336], [0.23987450959304976, 0.023411646874914437, -0.019660535371047512, 0.2974384625705826, -0.24846423146003638, 0.23697200059585924, 0.13757903375205596, 0.7063457311412157], [-0.0564718784855356, -0.31157651515841106, 0.5873970664962838, -0.3208972524083586, 0.298758932492248, -0.2511292123517691, 0.18507798058068858, -0.2576029763091231], [-0.007589136421497455, 0.31536944534253014, 0.23182986355585405, 0.10146899224797146, 0.4603096484854576, -0.7127016722045675, -0.3320365082375997, 0.33066196370299267], [-0.006930002764167947, -0.4608516819062883, -0.027055535336465267, -0.39761715453638974, -0.7258838867518175, 0.04405561227346098, -0.22762626311017756, -0.3642656372013947], [-0.1993892947753075, -0.46469388800367406, 0.28411621878294746, 0.31232975667109875, 0.1701277587344477, -0.5901103667650294, -0.0035983671938112564, 0.3074104929797674], [0.19976325083063434, -0.012214383660527012, 0.2701462891317541, -0.06581977083444389, 0.09325768437246391, -0.06491181875522326, 0.03859298177072714, 0.009201577620707805], [0.012636487300099981, 0.5556076375038959, 0.2179171370606968, -0.49320075783988815, 0.0037979416072245168, -0.5264811002068901, -0.953020710422111, 0.4615803780351007], [-0.4317517474881466, 0.3822982820743069, -0.1293414950633825, -0.10735113084314382, 0.5495930201964115, 0.07035867403596377, 0.20751223041061848, 0.015920810459376523], [-0.3304864023224445, 0.011778403449530702, 0.28638768889625754, 0.2332846690460049, 0.354185400668074, 0.8488202237460546, 0.375471305198231, 0.07371533901810533], [-0.16479104195414868, -0.41815442860480195, -0.017162230859685622, -0.2664740210371392, 0.5357220786426047, -0.48944250199533174, -0.030271834457838116, -0.6138660342237529]], "bias": [0.1, 0.1, 0.1, 0.1, 0.1, 0.1, 0.1, 0.1]}, {"weights": [[-0.03685349071985625, -0.003358383381300364, 0.05367029626454313, 0.056697833751145225, 0.026805504678251386, 0.005798641029234576, -0.08329399092564577, 0.030086362577372235, 0.028418708434074715, 0.07179106976874865, -0.04238491607964087], [-0.20045697862862044, -0.13988325447561722, -0.11784925372244644, -0.11242317633795695, 0.060881598477079094, 0.07835376009741842, -0.02584565056330972, 0.11333748130721598, -0.006756107256291506, 0.07033134391855096, -0.054861697663678155], [-0.048040914342494995, 0.11919000479343336, -0.07413759220571543, 0.12992821579948852, 0.03129459660719014, -0.13277403639106566, 0.13684902816472008, 0.08353836358251923, 0.07987686480619112, 0.06566760463950705, 0.06411729654665273], [0.09502327843212897, 0.017353543076437085, 0.03896823557435944, -0.0925476356023758, -0.15840471817930912, 0.07446882774232126, -0.10524772799942513, -0.050629579766161614, -0.12924831899635755, 0.04927448407630113, 0.03237043649155615], [0.045280531296265226, 0.05759255946630329, -0.07541364087659744, 0.0014947553511185222, -0.1553027219637254, -0.09525312472657595, 0.0374269736930912, -0.023340113000076948, 0.004822147373386344, -0.1368056675774488, -0.042894055683851], [-0.07169619254099967, -0.08174523395014216, -0.035340859016188685, 0.050768360878334175, 0.04909279751247095, 0.1329185678691772, 0.09237075862355837, -0.08157406992564104, -0.07403450005359669, -0.0244561049852025, -0.024226022404416785], [0.12047739063314684, 0.12642487545951733, 0.2257898079775029, -0.07302774590791372, -0.042666676429971455, -0.05442336161800481, -0.020226057530568078, -0.03645945465442549, -0.11040803791420123, -0.0935212743252718, -0.03725500137831949], [-0.005800183748521665, -0.064644826663976, 0.03229182785086554, 0.02204212809541421, -0.02251613426217731, 0.02027858805501529, -0.0642113579121797, -0.0036550054093343744, -0.11335413952579004, 0.08025078612006771, -0.024080355608829263]], "bias": [0.0, 0.0, 0.0, 0.0, 0.0, 0.0, 0.0, 0.0, 0.0, 0.0, 0.0]}], "timestamp": 1771198836.2895179}
{'C': 0.95, 'F': 0.05}
{"node_id": "arkhe_neural_v2", "layers": [{"weights": [[-0.3637304018313301, -0.7625596927383239, 0.3023996845665625, -0.11255201713354333, -0.18235566777390333, 0.5901023488694681, -0.3222367946595822, -0.18196182187977553, 0.08471435773960756, 0.7035280404602292, -0.12318852807089388, 0.1107870462200744, -0.19698014333292127, 0.06305484965572844, -0.6170483675315273, 0.4923141874787237], [0.35160248640817177, -0.9771048346141277, -0.09480988744219951, -0.09177519043678893, 0.18888674313855408, 0.15739693918932293, -0.275806170535209, -0.3120865036282393, 0.7396935660874048, -0.042697332625963556, -0.16495191985054117, 0.2561142624753385, -0.423064433743745, -0.22747296594915614, 0.5435353904325714, 0.09973228876211772], [0.7613652117940459, -0.11577249784792497, 0.3823872262914257, -0.42144568517785785, -0.12076156033966759, 0.4331086178402884, -0.41899474847175133, -0.2999876516865489, -0.2514820400685791, 0.31031749511172474, 0.3493401153293245, -0.056878817296966984, -0.046652678915616634, 0.6093118446739807, 0.44189042674729234, -0.0972996245203204], [-0.5829504679737174, -0.24394729818557584, -0.5053653996469339, -0.38339460126758934, 0.08051329436918488, -0.6024374300489991, -0.3391680617180277, -0.9123083988444854, 0.4165293592325016, -0.06153780707625985, 0.7486134361777279, 0.8381966187217463, -0.24416904737511938, -0.43807788427202765, -0.8427138829532602, -0.3558568168062022], [-0.23892583181293967, 0.3682762877068246, 0.15791516856166404, 0.37929012330704787, 0.057028406727215354, 0.7215429619524801, -0.0965031805601494, -0.0987566015209416, -0.2466621238837363, 0.33073356462797154, 0.28987268598045157, 0.021278371555797874, -0.7831985503574125, -0.5396538862049752, 0.045907512118493254, 0.008978280276831308], [-0.656704708645537, 0.3888059403278583, -0.10618268084387598, -0.21464257146372073, 0.15073848678696836, -0.6935545561066475, -0.1520288038612127, 0.12829356590926821, -0.4819110806444325, 0.2763536086740646, 0.3848508198177435, -0.04013416604932545, 0.7918279976634118, -0.3612156407298469, -0.26579036033768383, -0.4295770357604517], [0.26809478748239474, 0.08662960725662208, -0.1289016541899365, 0.3677809738283982, -0.20957216478002796, -0.09555364536272364, 0.06024383754997641, 0.8051668354990232, 0.40709939056714795, -0.1550346797830532, -0.28073644046135543, -0.12463545319573026, 0.3896095858759048, 0.05817406083868852, 0.6101967779378529, 0.10927496215719329], [0.07401171836008312, 0.029611703231609016, 0.15834068844006183, -0.3102454359257817, -0.351533965150336, -0.03178622185379353, 0.8699031456574223, 0.29206777923193267, -0.5050073722198013, 0.10992522210729559, -0.18734727622418829, 0.2937657138640811, -0.24083208922118587, 0.43885401809892827, 0.9379719308032645, -0.1634674994465395], [0.6496530002199662, -0.30281033133872437, 0.6005490781911963, -0.6608005493019372, -0.2469863479615588, -0.6333681805470293, -1.0434737288630997, 0.253215430456136, -0.6638402980744835, 0.06669305908407921, 0.37307246776960845, 0.14284890373350506, 0.01149733716409293, -0.579885444846997, -0.6523211218209952, 0.3009667220122979], [-0.05650992713360237, 0.19850033621311486, 0.510175474946008, 0.736076069019067, -0.14350668088070495, -0.021237905773228326, 0.4856323707610053, -0.5360196629388553, 0.12946970691325319, -0.21653274250585722, -0.7321534922648935, 0.5116963761851138, 0.233364460068356, 0.565179837190756, 0.5040827348181904, 0.9215698471244639], [0.3910234901934108, -0.14132994849872726, -0.219901395766126, -0.18846926021180263, 0.13691490872563108, 0.5726023751401592, 0.31672274398338857, 0.19543622906014596, 0.19219656936812257, 0.2647595125977996, -0.18065386828211083, -0.1472490778749605, -0.04098763649391187, -0.38574563415330076, -0.33109315710090026, 0.8820068611476012]], "bias": [0.1, 0.1, 0.1, 0.1, 0.1, 0.1, 0.1, 0.1, 0.1, 0.1, 0.1, 0.1, 0.1, 0.1, 0.1, 0.1]}, {"weights": [[0.386562127435239, -0.19446381908088622, -0.264382827575755, -0.33563879857665235, 0.012579411189365463, -0.5091015075579012, -0.13941601286302255, -0.02550411379141426], [0.015987105349824712, 0.18583845111364103, 0.4735445739740573, 0.09609708600811734, 0.0925900717547442, -0.08207852593867822, -0.07686936844777353, 0.46627010456102586], [0.3684591257869929, 0.12537982955864976, -0.2931994669949634, -0.7049251325829126, -0.7386294338111432, -0.39925085228665924, -0.5045746005578329, 0.10180110273463516], [0.7571843694295654, -0.1975841540096712, 0.10632579389478693, -0.20539518661601944, 0.059232259241733726, -0.20823435878233426, -0.8187193924976075, -0.22897887901587785], [0.3291552058730842, 0.185436607044001, -0.7715930482901926, -0.12642541101269214, 0.13095494645194078, -0.5878963125126037, 0.08470985909313873, -0.012903290570961087], [-0.5095234777909315, -0.261715446998015, -0.22482973962713496, 0.12472996786553103, 0.06871340809599309, 0.27877479364844276, -0.4015874975133673, 0.03790525539655963], [0.39632741939261223, -0.5196302397959022, 0.20684502221735537, -0.536991553440821, 0.04863248230293441, 0.0028182594366805767, 0.18179480002033124, 0.51488409888142], [-0.7325094012934943, 0.28418767810967444, 0.43568991591324036, 0.5545801170045774, -0.06646855594254106, 0.47976852689416455, -0.01625018314033515, 0.45457914269207755], [-0.4430588086004068, -0.13502245684784092, 1.0707863292248947, 0.07328166927639056, 0.27528609617214067, 0.1932315585457148, 0.15215431068062038, 0.06386912732052709], [-0.3812962558048045, 0.32649854605090634, -0.01540152413358918, -0.07538220925743985, 0.43738090795414075, -0.05699228557056448, 0.2157395043482232, -0.36494308343737797], [-0.3652867399142433, -0.06293675931439392, 0.25370931977103933, 0.11311505626519582, 0.2282843469156116, -0.3144447614980555, 0.13325956047848342, -0.1940096139220933], [0.028291497094112383, -0.24038231084047063, 0.161191983713774, 0.29598620893533395, 0.26326558263050276, 0.10254210046394968, 0.7115649360964539, 0.10214928601763741], [-0.24841191175016042, -0.27480452635660396, -0.07693667812932534, -0.6350150090925175, -0.014905959128262437, -0.11245752977380068, -0.7862824958904356, 0.5686922026221323], [-0.14767967013043903, -0.008444636309478865, -0.3189105004780816, 0.5256787569544286, 0.032802445320633616, -0.47830885212586594, -0.24370523742043598, -0.46967691809983153], [0.21235661364085315, 0.267206552251987, 0.34403994867293997, 0.26676008568562887, 0.8018177015257091, 0.16166677865868517, 0.722328670146791, 0.12798567520630216], [-0.7466412740702055, -0.11580021532497917, 0.12739948862451897, -0.5746908734784653, 0.14192231059581467, 0.6022214814787102, 0.13946197375563318, 0.5985724821903232]], "bias": [0.1, 0.1, 0.1, 0.1, 0.1, 0.1, 0.1, 0.1]}, {"weights": [[0.014026169655391907, 0.10460193100496554, 0.16866532570139253, 0.020453582270535283, 0.13684091375511445, 0.06742559555937917, 0.03372735682744577, -0.09791122704526461, 0.06752288724254273, 0.08966127461190378, 0.08539327066999111], [-0.15302582156336617, 0.17046704393711531, 0.16909486630278936, 0.09935234237791091, 0.16443550811506247, 0.04527776646129398, -0.1269048618287121, -0.14973175961320537, -0.028804622260960613, 0.0505373062247339, -0.08251811424855633], [-0.21615320336407828, -0.128950805113408, -0.1407833257996029, 0.017999675122178274, -0.14618812903965994, 0.011116565248335666, 0.0645982822174243, -0.18945594502523078, -0.019630685735737476, 0.038045397613222766, 0.030832910106657466], [-0.011620714340637668, -0.01911134952673079, -0.07920267134018447, -0.09578171247431967, 0.14257808551313422, -0.07438683883079489, 0.038800612820773725, -0.11035392467843592, 0.06879243445230247, 0.045998462647086784, -0.01122335616343018], [-0.006774843552271118, 0.009770230443378547, 0.1117399727227987, 0.1116350737416604, -0.0865346258211289, 0.2584067162913951, 0.10163684550902802, 0.13840291170959929, 0.05123636614610955, -0.04611418399182319, 0.11033742066440327], [0.10950392356688483, 0.029245487044538013, -0.01584092618261227, -0.18288214812334574, 0.14072913690376482, 0.0806183888731094, -0.06324357590476508, -0.014481073744498196, -0.01747322383526146, 0.0558375146923651, 0.06943943677115513], [-0.15902014620238325, 0.105747946342342, 0.03187184138932416, 0.0316385473634813, 0.1385222359103337, -0.014160531291566967, 0.06330854241042078, -0.11276926499838005, 0.04039524306062467, -0.05870512721419378, -0.05265181564278022], [0.013182923202865977, 0.0758618009246097, -0.01994684361044566, -0.0930747696985541, -0.07921788136936235, 0.0708905428323279, -0.007736444130983131, -0.030512485126324918, 0.04185345015078285, 0.018230209278585027, -0.11995012998693276]], "bias": [0.0, 0.0, 0.0, 0.0, 0.0, 0.0, 0.0, 0.0, 0.0, 0.0, 0.0]}], "timestamp": 1771200044.3545704}
